
\data\
ngram 1=11
ngram 2=13
ngram 3=3

\1-grams:
-0.7781513	</s>
-99	<s>	-0.2218487
-1.255273	不是	-0.2218487
-1.255273	他	-0.2498775
-1.255273	你	-0.2762064
-1.255273	实习生	-0.2218487
-0.9542425	工程师	-0.04575749
-1.255273	我	-0.2498775
-0.9542425	是	-0.04575749
-0.7781513	识别	-0.09691001
-0.7781513	语音	-0.5228788

\2-grams:
-0.7781513	<s> 他
-0.7781513	<s> 你
-0.7781513	<s> 我
-0.30103	不是 语音
-0.30103	他 是
-0.30103	你 不是
-0.30103	实习生 </s>
-0.60206	工程师 </s>
-0.30103	我 是
-0.60206	是 语音	0.1249387
-0.7781513	识别 实习生
-0.7781513	识别 工程师	-0.3521825
-0.1249387	语音 识别	-0.39794

\3-grams:
-0.1760913	识别 工程师 </s>
-0.1760913	语音 识别 工程师
-0.1760913	是 语音 识别

\end\
